kronik 0.13679 -0.13909 -0.36089 0.079864 0.32149 0.26387 -0.1099 0.04442 0.083869 0.79133 0.33604 -0.29532 -0.14239 -0.81357 -0.14351 -0.22485 0.40605 0.035396 -0.16858 -0.0040199 0.52157 -0.10901 0.046824 -0.44446 0.42811 -0.088574 -0.21835 0.36845 -0.46969 0.12029 -0.30496 -0.3688 0.36216 0.37999 0.7926 0.32539 -0.25488 0.4104 -0.20211 0.23816 -0.23408 0.21606 0.33776 -0.21653 0.11196 0.131 -0.34571 -0.91759 0.1117 0.036989 0.29906 -0.11987 -0.16923 -0.10999 0.31512 0.17649 0.43479 -0.030186 -0.22164 0.24898 0.097992 -0.11084 -0.83556 0.41026 0.22685 -0.10631 -0.40079 -0.6453 -0.18601 -0.37165 -0.65424 0.13998 0.26474 -0.15928 0.18026 0.05375 -0.30623 -0.30361 0.16699 -0.009916 -0.0052732 0.28507 -0.37502 -0.55128 -0.48621 0.078935 0.21698 0.10018 0.13114 -0.00046586 -0.028156 0.18161 0.83461 0.30293 -0.60058 -0.017062 0.48565 -0.24022 -0.30899 0.48162 -0.41665 -0.58859 -0.31291 0.60805 0.085231 0.13508 0.24484 -0.44922 0.49122 -0.50412 0.28658 -0.0080186 0.10957 0.061013 -0.050982 -0.50861 -0.27341 -0.21551 0.14857 0.15943 -0.12373 -0.29187 -0.17158 0.14824 0.10596 0.06571 0.17338 -0.48753 0.092859 -0.41956 0.24304 -0.36646 -0.081733 -0.4541 -0.2491 -0.096763 0.025352 -0.13152 -0.091645 -0.67123 -0.34877 -0.32374 0.13728 0.1528 0.40624 0.010549 -0.44492 0.15698 -0.019502 -0.0057541 -0.12604 -0.24137 -0.71995 0.29041 -0.40656 -0.35534 0.10628 -0.41191 -0.43043 0.063306 -0.24815 0.35452 0.11662 -0.13344 -0.1863 -0.16969 -0.39265 -0.17974 -0.02672 -0.61008 0.37123 -0.28347 0.74271 -0.12553 0.71449 -0.16362 -0.12051 0.34381 -0.14773 0.045476 -0.045017 -0.5376 0.37618 -0.23554 -0.37538 -0.013418 0.55086 0.16287 0.383 -0.31669 0.29942 0.13675 -0.0094944 -0.16418 -0.22989 -0.14411 -0.14795 0.56453 0.21561 0.071338 -0.74673 -0.12208 0.023775 0.14302 -0.49412 -0.45156 0.33883 -0.11002 -0.18691 -0.12526 -0.11427 0.18814 -0.068133 0.011812 -0.12382 -0.29035 -0.53409 0.1748 0.0057753 -0.036626 -0.15941 0.24628 0.24084 -0.036335 -0.16207 -0.05566 0.047509 0.4124 0.17755 -0.20984 0.038668 -0.18533 -0.47808 0.25994 -0.46751 -0.68334 -0.28151 0.45905 -0.15853 -0.34637 -0.16463 -0.12813 0.070168 -0.1253 0.26765 0.10934 -0.33102 -0.18768 0.66949 -0.57363 -0.035493 -0.38052 0.40414 -0.17704 -0.2538 -0.1028 -0.0039138 0.076118 -0.24347 0.30751 -0.0072228 0.20439 0.00061402 0.12327 -0.17679 -0.15327 0.1814 -0.44532 -0.29413 0.076841 -0.42639 0.41247 -0.1428 -0.096914 -0.23572 0.098077 0.68219 -0.026139 -0.43039 0.45611 -0.47719 -0.090929 -0.004629 0.22851 0.05159 0.11607 -0.36934 -0.28373 0.043661 -0.31918 0.036419 -0.036845 -0.34815 0.064732 -0.00057677 -0.13379 0.42896 -0.02332 0.41021 -0.39308
rolonda 0.075713 -0.040502 0.18345 0.5123 -0.22856 0.83911 0.17878 -0.71301 0.3269 0.69535 0.19446 -0.10728 0.044236 -0.065941 0.10432 -0.36894 0.69595 0.45427 -0.13464 -0.0033193 0.080716 0.23051 -0.4602 0.10539 0.23362 -0.05109 -0.23978 0.05471 0.16232 -0.19418 -0.38153 -0.30278 -0.028447 -0.26284 0.57233 -0.036644 0.18941 -0.10858 0.040416 -0.18211 -0.16656 0.60769 0.13474 -0.66354 -0.4294 0.044422 0.35953 -0.18416 0.12553 0.30395 0.17326 -0.16102 -0.23831 0.19842 -0.44027 -0.30012 0.23437 0.14075 -0.064766 0.094903 -0.07362 -0.34095 -0.2779 0.48561 0.16998 0.51583 0.095597 0.057375 -0.3783 0.11394 0.1336 0.19739 0.18226 -0.084501 -0.17954 0.45907 -0.31768 0.016546 0.33359 0.30196 -0.035949 -0.015905 -0.17472 -0.26085 0.16844 0.090666 -0.61901 -0.45422 -0.80092 -0.62379 0.26967 -0.063555 0.47213 -0.10329 -0.37637 -0.14071 0.45001 -0.090529 0.3942 -0.12273 -0.0077364 -0.44334 -0.06412 0.12478 0.24259 0.13817 0.50467 -0.27895 0.23452 -0.59801 -0.19804 0.086422 0.33322 -0.092081 -0.17289 0.45778 0.097828 0.16336 -0.10048 0.33461 0.28976 0.26724 -0.41916 -0.19055 -0.16521 -0.15505 0.37406 -0.331 0.01069 -0.065877 0.0051636 -0.13789 -0.030191 0.22596 0.18503 0.26472 0.62347 0.83212 -0.11091 -0.25377 -0.29037 0.51881 0.050428 -0.13687 -0.037633 -0.010717 -0.37458 -0.22144 0.036824 -0.16287 -0.71241 0.67445 -0.4613 0.55016 -0.27654 0.22494 0.73146 0.18525 -0.24997 0.096774 -0.23612 0.24256 -0.28892 -0.18468 -0.12744 -0.17979 -0.58197 -0.41452 0.30905 -0.017678 -0.18947 0.22886 0.85167 -0.74894 0.72283 -0.27725 0.023532 0.44367 0.28131 -0.27466 -0.10346 0.014234 -0.13007 -0.20373 0.053186 -0.093075 0.44489 0.34027 0.065346 -0.048982 0.30599 -0.08844 0.052093 0.035383 0.05231 0.010973 -0.37979 0.41392 -0.083358 -0.3372 -0.60433 0.10116 0.39481 0.60196 -0.076685 -0.090552 -0.33768 -0.25587 0.028841 0.2848 -0.32171 -0.24958 -0.16087 -0.36974 -0.097923 0.2365 0.22597 -0.036782 0.5084 -0.5985 -0.71713 0.28646 -0.070972 -0.30734 -0.41339 0.068419 0.08373 0.58047 0.10739 0.05487 0.013441 -0.63731 -0.42418 0.11553 -0.23076 -0.010325 -0.48419 -0.060985 0.39693 -0.36635 -0.10576 0.055684 -0.47436 -0.38326 0.65704 0.27845 -0.25811 0.021157 1.0262 -0.23423 -0.70381 -0.60094 0.061519 -0.25708 -0.089199 0.30918 0.23722 0.44338 0.097648 -0.31517 -0.11628 0.15354 -0.033513 -0.04491 -0.30764 -0.49018 0.57727 0.41665 -0.19287 -0.32742 0.24571 0.24055 0.072165 -0.21339 0.067742 0.17494 0.95233 0.26452 -0.31342 0.22666 -0.35425 0.25584 0.0012888 -0.0033497 -0.26952 0.087898 0.26114 -0.22056 -0.29927 0.29846 -0.38853 0.54585 -0.03505 -0.18436 -0.197 -0.35003 0.16065 0.21838 0.30967 0.43761
zsombor 0.81451 -0.36221 0.31186 0.81381 0.18852 -0.3136 0.82784 0.29656 -0.085519 0.47597 0.23528 0.066824 0.093173 -0.21264 0.14752 -0.85805 0.35444 0.38013 -0.1664 0.34043 -0.063226 0.19211 -0.096717 -0.23625 0.06316 -0.11807 0.079266 -0.3569 0.0012785 0.023297 0.14114 -0.26078 0.52422 -0.0256 0.071836 0.26244 -0.26567 0.6057 -0.20502 -0.27045 -0.00262 0.073665 0.52424 -0.063433 0.2786 -0.28612 -0.45905 -0.59098 0.38366 -0.65564 -0.1723 0.62354 -0.097275 -0.24341 -0.38527 -0.31276 0.25701 -0.38186 -0.14169 0.14344 -0.13076 -0.021102 -0.57624 -0.022396 -0.22634 0.45887 0.076385 0.17332 -0.066004 -0.38483 0.025969 -0.43216 -0.32049 0.25008 -0.20432 0.18172 -0.42206 -0.50526 0.45787 0.18617 0.37975 0.23169 -0.4012 0.07402 -0.02798 0.41388 0.22267 -0.45399 -0.52156 0.011355 -0.25444 -0.55968 0.38389 0.1708 -0.21719 0.19439 -0.091437 -0.45094 0.12436 1.0059 -0.032797 -0.63434 0.53614 -0.42055 0.19079 0.024501 -0.34435 0.2717 -0.31681 -0.056128 -0.34228 0.22937 0.19294 0.7478 0.37396 -0.41548 0.47729 0.095108 0.49602 0.50132 -0.23534 0.066727 -0.81495 0.21717 -0.022764 0.21804 0.39843 -0.12198 0.096472 -0.44346 0.52533 -0.42832 -0.22006 0.076424 0.15258 -0.17302 0.30593 -0.10406 0.79607 -0.53292 -0.20975 -0.09064 0.021986 -0.78779 0.67248 0.40357 -0.50002 -0.10734 0.2129 0.036481 -0.40656 0.25136 -0.23139 -1.0031 -0.272 0.48229 0.045531 0.29807 -0.63858 -0.26624 -0.41837 0.19556 -0.53229 0.12173 0.38637 0.28439 -0.54463 -0.36391 -0.16761 -0.36126 0.044365 -0.059385 0.96096 0.02031 -0.093919 -0.38049 -0.030609 0.27578 0.13457 0.08744 -0.5602 -0.21483 -0.29395 0.065848 0.21594 0.051249 0.19881 -0.30279 -0.089039 -0.63501 0.45099 -0.046262 -0.080453 0.039603 -0.50294 -0.14493 0.21851 -0.1907 0.1612 -0.31158 -0.88664 -0.31362 0.05701 -0.49232 -0.078661 -0.26426 -0.021083 -0.51167 -0.070031 -0.067667 0.10926 -0.051119 -0.043465 0.14181 0.052005 -0.32379 0.048109 0.07229 0.10414 0.068077 -0.035509 0.45888 0.44834 -0.14696 -0.17707 -0.053318 0.11922 -0.50939 0.62317 -0.24222 0.14001 -0.082062 0.41274 -0.030363 -0.06067 -0.18309 -0.10799 0.025871 0.16873 -0.13905 0.42162 0.32077 -0.051756 0.10959 0.74624 0.45614 -0.72723 0.32996 0.01341 0.098494 -0.15676 0.20318 0.19666 0.25758 -0.29324 0.25796 0.3246 0.16346 -0.38219 -0.37168 -0.07994 0.49465 -0.1715 0.18924 -0.0060376 0.20704 -0.22569 -0.21292 -0.16842 -0.31807 0.69489 0.37507 -0.52011 -0.77034 -0.24942 0.1263 0.77037 -0.43954 -0.34093 -0.33499 0.22535 -0.21203 0.15216 -0.52565 -0.40214 -0.97851 0.44972 -0.62254 0.37585 1.02 0.13088 0.10612 -0.40811 0.31338 -0.43025 0.069798 -0.20769 0.075486 0.28408 -0.17559
sandberger 0.429191 -0.296897 0.15011 0.245201 -0.00352027 -0.0576971 0.1409 -0.222294 0.221153 0.767218 -0.0772662 -0.0710635 0.0629486 -0.220179 -0.108197 -0.301419 0.232164 0.168669 -0.00452476 0.168254 -0.0579106 -0.0362662 -0.273464 -0.162976 0.239398 -0.0119058 0.044685 0.105252 0.102867 -0.0232984 -0.0114432 -0.381673 0.06122 0.0170547 0.415463 -0.109101 0.0959916 0.19149 -0.00752907 -0.194603 -0.0431976 0.259788 0.00527856 -0.183626 0.225188 -0.0187726 -0.158172 -0.586937 0.249259 -0.130252 -0.0537497 0.0315535 -0.18562 0.0610198 -0.0850566 -0.0965162 0.278621 -0.247254 -0.153895 0.0418453 0.0704212 -0.062286 -0.284913 0.0152124 0.144002 0.335902 -0.288315 -0.00253548 -0.0876423 -0.0574409 0.00670068 -0.0753335 -0.0677815 -0.056624 0.19296 0.0250159 -0.39188 -0.159278 0.26123 0.10221 0.0877169 0.0433055 -0.179803 -0.189744 0.0510538 -0.0164141 -0.00714073 -0.327697 -0.207509 -0.0213479 0.116692 -0.0675631 0.268143 0.0961855 0.0516012 -0.0365261 0.317162 -0.158929 -0.055459 0.287867 -0.140655 -0.22574 -0.0546181 0.212033 -0.0359359 -0.0979935 -0.0192465 -0.186423 0.298623 -0.133734 -0.114258 0.303311 0.142693 0.0511059 0.111157 -0.106419 0.246942 -0.0651711 0.137669 0.227577 -0.0368457 0.139383 -0.110347 -0.0728796 0.0965853 0.0341107 0.266715 -0.00704015 0.0284732 -0.285951 0.148497 -0.351773 -0.180508 0.0751255 -0.0413605 0.0231546 0.134506 0.234478 0.00781917 -0.43099 -0.171226 -0.0480835 -0.144825 -0.105583 0.412142 -0.0439167 -0.122553 -0.105488 0.186419 -0.0874551 -0.361173 0.136994 -0.144939 0.0686074 -0.451632 -0.074767 0.235809 -0.147076 -0.208566 0.0402512 -0.259224 0.291085 -0.0382213 -0.206058 -0.0899165 0.0435619 -0.181273 -0.0926961 0.072062 -0.328039 -0.048914 -0.0823928 0.590713 -0.331955 0.150388 -0.0932722 0.125483 0.231407 0.038411 -0.309962 -0.176691 -0.176243 -0.0882869 0.0158377 0.211813 0.21001 0.373582 0.00851073 0.162029 -0.220738 0.193189 -0.171447 0.0398142 -0.00306123 0.0124712 -0.0604954 -0.0637569 -0.192784 0.0691775 -0.235627 -0.695412 0.0393999 0.00500533 0.0142551 -0.0899872 -0.111971 0.100664 -0.184054 -0.0590461 -0.0465109 -0.0150755 -0.0513298 -0.0987529 -0.0366648 -0.303673 -0.017006 0.080696 -0.195126 0.1504 -0.149472 -0.318116 0.110871 0.26067 -0.0893003 -0.085158 -0.155758 -0.0600761 -0.0388501 0.309034 0.109652 0.0357152 -0.158324 -0.189182 0.0512705 0.0812089 -0.343977 -0.205674 -0.15306 0.253454 -0.0530577 0.0589571 0.0414807 -0.198986 -0.0430847 0.367526 0.0418675 -0.159542 0.176339 0.356934 -0.0974301 -0.164426 -0.077908 0.268078 0.183976 -0.234933 0.250391 0.122084 0.023921 -0.293752 -0.0107412 -0.172625 0.0896321 -0.249243 -0.178334 -0.100114 0.174536 0.0815058 -0.259272 -0.0360751 -0.183724 0.123181 0.181773 -0.118333 -0.275433 0.00962016 -0.0358025 0.782868 0.0813635 -0.308954 0.00448305 0.172544 0.0387627 0.0373694 0.0566374 0.0239079 -0.257542 0.157507 -0.282229 -0.132506 0.217548 0.128146 0.0975518 -0.130981 -0.142839 -0.175458 -0.168996 -0.0225121 0.28975 0.32618 -0.0590532
